<BIF VERSION="0.3">
<NETWORK>
<NAME>Grafo Actividad Fisica (Alfonso Soldado y Daniel Rodriguez)</NAME>
<PROPERTY>detailed = </PROPERTY>
<PROPERTY>short = </PROPERTY>

<VARIABLE TYPE="nature">
	<NAME>cuerpo atletico</NAME>
	<OUTCOME>T</OUTCOME>
	<OUTCOME>F</OUTCOME>
	<PROPERTY>position = (7272.59912109375, 5182.71826171875)</PROPERTY>
</VARIABLE>

<VARIABLE TYPE="nature">
	<NAME>ejercicio</NAME>
	<OUTCOME>T</OUTCOME>
	<OUTCOME>F</OUTCOME>
	<PROPERTY>position = (7272.59912109375, 5068.97412109375)</PROPERTY>
</VARIABLE>

<VARIABLE TYPE="nature">
	<NAME>buena alimentacion</NAME>
	<OUTCOME>T</OUTCOME>
	<OUTCOME>F</OUTCOME>
	<PROPERTY>position = (7747.54541015625, 5065.5009765625)</PROPERTY>
</VARIABLE>

<VARIABLE TYPE="nature">
	<NAME>autoestima</NAME>
	<OUTCOME>T</OUTCOME>
	<OUTCOME>F</OUTCOME>
	<PROPERTY>position = (7366.37255859375, 5315.564453125)</PROPERTY>
</VARIABLE>

<VARIABLE TYPE="nature">
	<NAME>salud mental</NAME>
	<OUTCOME>T</OUTCOME>
	<OUTCOME>F</OUTCOME>
	<PROPERTY>position = (7366.37255859375, 5388.4990234375)</PROPERTY>
</VARIABLE>

<VARIABLE TYPE="nature">
	<NAME>obesidad</NAME>
	<OUTCOME>T</OUTCOME>
	<OUTCOME>F</OUTCOME>
	<PROPERTY>position = (7747.54541015625, 5180.9814453125)</PROPERTY>
</VARIABLE>

<VARIABLE TYPE="nature">
	<NAME>sobrepeso</NAME>
	<OUTCOME>T</OUTCOME>
	<OUTCOME>F</OUTCOME>
	<PROPERTY>position = (7516.583984375, 5207.8984375)</PROPERTY>
</VARIABLE>

<VARIABLE TYPE="nature">
	<NAME>esperanza de vida alta</NAME>
	<OUTCOME>T</OUTCOME>
	<OUTCOME>F</OUTCOME>
	<PROPERTY>position = (7884.73291015625, 5251.31201171875)</PROPERTY>
</VARIABLE>

<VARIABLE TYPE="nature">
	<NAME>resistencia pulmonar</NAME>
	<OUTCOME>T</OUTCOME>
	<OUTCOME>F</OUTCOME>
	<PROPERTY>position = (7119.7822265625, 5244.36572265625)</PROPERTY>
</VARIABLE>

<VARIABLE TYPE="nature">
	<NAME>deportista profesional</NAME>
	<OUTCOME>T</OUTCOME>
	<OUTCOME>F</OUTCOME>
	<PROPERTY>position = (7157.11865234375, 5313.82763671875)</PROPERTY>
</VARIABLE>

<VARIABLE TYPE="nature">
	<NAME>fumar</NAME>
	<OUTCOME>T</OUTCOME>
	<OUTCOME>F</OUTCOME>
	<PROPERTY>position = (7057.2666015625, 5071.57861328125)</PROPERTY>
</VARIABLE>

<DEFINITION>
	<FOR>cuerpo atletico</FOR>
	<GIVEN>ejercicio</GIVEN>
	<GIVEN>buena alimentacion</GIVEN>
	<TABLE>0.9 0.1 0.6 0.4 0.3 0.7 0.1 0.9</TABLE>
</DEFINITION>

<DEFINITION>
	<FOR>ejercicio</FOR>
	<TABLE>0.65 0.35</TABLE>
</DEFINITION>

<DEFINITION>
	<FOR>buena alimentacion</FOR>
	<TABLE>0.3 0.7</TABLE>
</DEFINITION>

<DEFINITION>
	<FOR>autoestima</FOR>
	<GIVEN>cuerpo atletico</GIVEN>
	<TABLE>0.9 0.1 0.4 0.6</TABLE>
</DEFINITION>

<DEFINITION>
	<FOR>salud mental</FOR>
	<GIVEN>autoestima</GIVEN>
	<TABLE>0.95 0.05 0.45 0.55</TABLE>
</DEFINITION>

<DEFINITION>
	<FOR>obesidad</FOR>
	<GIVEN>ejercicio</GIVEN>
	<GIVEN>buena alimentacion</GIVEN>
	<TABLE>0.01 0.99 0.2 0.8 0.1 0.9 0.7 0.3</TABLE>
</DEFINITION>

<DEFINITION>
	<FOR>sobrepeso</FOR>
	<GIVEN>ejercicio</GIVEN>
	<GIVEN>buena alimentacion</GIVEN>
	<TABLE>0.05 0.95 0.6 0.4 0.15 0.85 0.85 0.15</TABLE>
</DEFINITION>

<DEFINITION>
	<FOR>esperanza de vida alta</FOR>
	<GIVEN>buena alimentacion</GIVEN>
	<TABLE>0.8 0.2 0.4 0.6</TABLE>
</DEFINITION>

<DEFINITION>
	<FOR>resistencia pulmonar</FOR>
	<GIVEN>ejercicio</GIVEN>
	<GIVEN>fumar</GIVEN>
	<TABLE>0.3 0.7 0.8 0.2 0.05 0.95 0.5 0.5</TABLE>
</DEFINITION>

<DEFINITION>
	<FOR>deportista profesional</FOR>
	<GIVEN>cuerpo atletico</GIVEN>
	<TABLE>0.3 0.7 0.05 0.95</TABLE>
</DEFINITION>

<DEFINITION>
	<FOR>fumar</FOR>
	<TABLE>0.25 0.75</TABLE>
</DEFINITION>
</NETWORK>
</BIF>
